{
  "type": "LSTM",
  "options": {
    "inputSize": 26,
    "inputRange": 26,
    "hiddenLayers": [
      20,
      20
    ],
    "outputSize": 26,
    "decayRate": 0.999,
    "smoothEps": 1e-8,
    "regc": 0.000001,
    "clipval": 5,
    "maxPredictionLength": 100,
    "dataFormatter": {
      "indexTable": {
        "O": 0,
        "v": 1,
        "e": 2,
        "r": 3,
        "s": 4,
        "a": 5,
        " ": 6,
        "t": 7,
        "d": 8,
        "i": 9,
        "n": 10,
        "x": 11,
        "I": 12,
        "o": 13,
        "l": 14,
        "R": 15,
        "c": 16,
        "h": 17,
        "p": 18,
        "m": 19,
        "u": 20,
        "y": 21,
        "k": 22,
        "stop-input": 23,
        "start-output": 24,
        "unrecognized": 25
      },
      "characterTable": {
        "0": "O",
        "1": "v",
        "2": "e",
        "3": "r",
        "4": "s",
        "5": "a",
        "6": " ",
        "7": "t",
        "8": "d",
        "9": "i",
        "10": "n",
        "11": "x",
        "12": "I",
        "13": "o",
        "14": "l",
        "15": "R",
        "16": "c",
        "17": "h",
        "18": "p",
        "19": "m",
        "20": "u",
        "21": "y",
        "22": "k",
        "23": null,
        "24": null,
        "25": null
      },
      "values": [
        {
          "input": "Overseas trade indexes",
          "output": "trade"
        },
        {
          "input": "International trade",
          "output": "trade"
        },
        {
          "input": "Overseas trade indexes",
          "output": "trade"
        },
        {
          "input": "Internal trade",
          "output": "trade"
        },
        {
          "input": "Overseas trade indexes",
          "output": "trade"
        },
        {
          "input": "International trade",
          "output": "trade"
        },
        {
          "input": "Research and development survey",
          "output": "research"
        },
        {
          "input": "Research and development survey",
          "output": "stocks"
        },
        {
          "input": "Research and development survey",
          "output": "income"
        },
        {
          "input": "tax",
          "output": "tax"
        },
        {
          "input": "employee",
          "output": "employee"
        }
      ],
      "characters": [
        "O",
        "v",
        "e",
        "r",
        "s",
        "a",
        " ",
        "t",
        "d",
        "i",
        "n",
        "x",
        "I",
        "o",
        "l",
        "R",
        "c",
        "h",
        "p",
        "m",
        "u",
        "y",
        "k",
        "stop-input",
        "start-output",
        "unrecognized"
      ],
      "specialIndexes": [
        23,
        24,
        25
      ]
    }
  },
  "trainOpts": {
    "iterations": 100,
    "errorThresh": 0.011,
    "logPeriod": 10,
    "learningRate": 0.01,
    "callbackPeriod": 10,
    "timeout": "Infinity"
  },
  "input": {
    "rows": 27,
    "columns": 26,
    "weights": [
      -0.14069518446922302,
      0.4188201129436493,
      0.13367116451263428,
      0.6434671878814697,
      -0.04723353683948517,
      -0.2791791558265686,
      0.44929569959640503,
      0.6960089206695557,
      -0.16150273382663727,
      -0.23952940106391907,
      -0.22663046419620514,
      -0.19027118384838104,
      -0.1172131821513176,
      0.4097529947757721,
      -0.8082064390182495,
      -0.3023562431335449,
      -0.1699906885623932,
      -0.5424124598503113,
      0.07312649488449097,
      0.10106614977121353,
      0.8393376469612122,
      -0.03620908781886101,
      0.17611835896968842,
      -0.14693908393383026,
      0.007358269765973091,
      0.00917013268917799,
      -2.7771975994110107,
      2.5327956676483154,
      0.0032155339140444994,
      -3.2196571826934814,
      -1.7061961889266968,
      -1.9758458137512207,
      1.0994892120361328,
      1.3448582887649536,
      3.0150909423828125,
      1.838794469833374,
      1.4055559635162354,
      1.3176963329315186,
      0.28684914112091064,
      1.0719138383865356,
      0.535201907157898,
      -1.6061408519744873,
      -2.4644107818603516,
      3.642834186553955,
      -0.7867914438247681,
      0.1477392166852951,
      0.031416162848472595,
      -0.6110817193984985,
      -0.22322577238082886,
      0.06089126318693161,
      0.8179814219474792,
      -0.5543933510780334,
      0.2710287868976593,
      1.4770631790161133,
      -0.3765767216682434,
      -0.21619808673858643,
      -1.9528056383132935,
      -0.11891889572143555,
      0.056545790284872055,
      1.8872908353805542,
      -0.4711253046989441,
      2.150526285171509,
      -0.36200910806655884,
      -0.0631382167339325,
      -0.18226838111877441,
      1.6161973476409912,
      1.6101889610290527,
      0.24262575805187225,
      -0.09044037759304047,
      -0.1381891667842865,
      0.4194090664386749,
      -0.6765893697738647,
      1.3364883661270142,
      0.8977424502372742,
      -0.8926913142204285,
      -1.4887961149215698,
      -0.20773349702358246,
      0.19606344401836395,
      -0.05732768774032593,
      -0.6278049945831299,
      0.7962479591369629,
      -0.969602644443512,
      -0.6328220963478088,
      -0.16395077109336853,
      -0.415177583694458,
      0.0938049778342247,
      -1.1471734046936035,
      -0.5398067831993103,
      0.029319973662495613,
      -0.0841841846704483,
      1.0338612794876099,
      -1.0693011283874512,
      -0.5513798594474792,
      -0.8105185627937317,
      0.1176939457654953,
      0.35642537474632263,
      -0.9649316668510437,
      0.1481454074382782,
      0.16324344277381897,
      -0.048791732639074326,
      -0.3845956027507782,
      -0.46116116642951965,
      -0.7262932658195496,
      1.2611619234085083,
      -1.073664665222168,
      -0.08053963631391525,
      0.5366021990776062,
      0.8125513195991516,
      0.38264456391334534,
      -1.4098014831542969,
      0.8742907047271729,
      -0.09055498987436295,
      1.0793784856796265,
      -1.3056882619857788,
      0.9647454023361206,
      0.5381650924682617,
      0.409092515707016,
      -0.4809935688972473,
      -0.5610750913619995,
      -0.6712978482246399,
      -1.109082818031311,
      1.0433235168457031,
      -0.6902259588241577,
      1.3551716804504395,
      -0.3636770248413086,
      -0.6937497854232788,
      1.3415446281433105,
      0.9492254257202148,
      -0.33159834146499634,
      1.056318759918213,
      -0.8910770416259766,
      2.404466152191162,
      1.1080248355865479,
      -1.360926628112793,
      -1.9408907890319824,
      -1.3121836185455322,
      0.38275420665740967,
      0.504361629486084,
      0.0751982182264328,
      1.3678646087646484,
      0.3392806053161621,
      0.3334381878376007,
      0.6467816829681396,
      -0.46454039216041565,
      -0.4428684711456299,
      -0.45412182807922363,
      -0.6648640036582947,
      1.63606595993042,
      -2.0097153186798096,
      1.0047987699508667,
      0.04323762282729149,
      -0.5169311165809631,
      -0.6200061440467834,
      -1.0367841720581055,
      -1.7553610801696777,
      0.9038741588592529,
      0.5352148413658142,
      -0.7394324541091919,
      0.2164088487625122,
      1.1972053050994873,
      1.531874656677246,
      0.36814478039741516,
      0.6252571940422058,
      1.575459361076355,
      -0.016658823937177658,
      -0.2744736075401306,
      -0.13619838654994965,
      -0.87125563621521,
      -0.1718212515115738,
      0.6452820301055908,
      0.16626743972301483,
      0.4580983519554138,
      0.4439579248428345,
      -1.2699519395828247,
      0.5899384021759033,
      -0.5944963693618774,
      1.04285728931427,
      -0.2703752815723419,
      -0.02595202624797821,
      0.20553846657276154,
      0.010343912057578564,
      0.0013397849397733808,
      0.25820374488830566,
      -1.2484580278396606,
      -0.6956207156181335,
      1.355564832687378,
      1.181105613708496,
      0.43283501267433167,
      0.18660114705562592,
      -0.36732086539268494,
      -0.1712489277124405,
      -0.0004982224781997502,
      -0.35576608777046204,
      -0.5828518271446228,
      -1.2670458555221558,
      0.2092921882867813,
      0.15193907916545868,
      0.5209848880767822,
      1.0370559692382812,
      -0.6827996969223022,
      1.5798295736312866,
      -0.17481549084186554,
      -0.10921450704336166,
      0.344507098197937,
      -0.4370267391204834,
      -0.36895889043807983,
      0.47257372736930847,
      -0.6297407150268555,
      -0.48696979880332947,
      -1.0851807594299316,
      0.7835455536842346,
      -1.8241965770721436,
      -0.5975409746170044,
      0.4517647325992584,
      -1.03725004196167,
      -0.3587462902069092,
      0.7225738167762756,
      -0.3796771764755249,
      0.3665398955345154,
      2.1153719425201416,
      2.380843162536621,
      0.11873754113912582,
      0.9263902306556702,
      -1.6387226581573486,
      -0.8085048794746399,
      0.819360613822937,
      -0.8960792422294617,
      0.3237393796443939,
      -0.3185392916202545,
      -0.9757742285728455,
      1.3349156379699707,
      2.287266969680786,
      -0.25251391530036926,
      2.739767074584961,
      0.8544267416000366,
      1.670996069908142,
      -1.538601279258728,
      0.80948805809021,
      -0.7481482028961182,
      -0.6329638361930847,
      0.5209710597991943,
      -0.264723002910614,
      0.31761905550956726,
      1.1164911985397339,
      -1.4624807834625244,
      0.15204744040966034,
      0.2527770698070526,
      -0.03422757238149643,
      0.07482025772333145,
      1.63175368309021,
      0.2719835042953491,
      1.025225281715393,
      0.6437166333198547,
      -0.5450010895729065,
      0.5767483115196228,
      1.6876428127288818,
      -0.84296053647995,
      -1.1850634813308716,
      -0.024299830198287964,
      -1.7892367839813232,
      0.029383542016148567,
      0.6597016453742981,
      0.6314415335655212,
      -0.4247133731842041,
      -0.0036170566454529762,
      0.5390413403511047,
      0.1048700213432312,
      2.4116451740264893,
      -0.17658765614032745,
      1.449389934539795,
      -0.031865451484918594,
      -0.4440799951553345,
      0.5916628241539001,
      0.6670279502868652,
      2.246495008468628,
      0.2194012999534607,
      0.32936856150627136,
      0.1680147796869278,
      -0.8502647280693054,
      -0.1473046839237213,
      3.0289387702941895,
      -1.0529667139053345,
      -0.3452676236629486,
      0.8425905704498291,
      -1.108278751373291,
      -0.03935685753822327,
      0.3266444504261017,
      -0.3068160116672516,
      -1.4047006368637085,
      0.4156859517097473,
      0.048051539808511734,
      0.1743640899658203,
      0.16261552274227142,
      0.1338409036397934,
      -0.3640892803668976,
      -0.1273738443851471,
      -0.41749462485313416,
      -0.1497431844472885,
      -1.365877628326416,
      -0.06215628981590271,
      0.9238978624343872,
      0.15446467697620392,
      0.4233536422252655,
      0.05655142664909363,
      0.5616871118545532,
      -0.12580448389053345,
      0.5072530508041382,
      1.3030736446380615,
      -1.080747127532959,
      -1.076103687286377,
      0.25792232155799866,
      -1.1598554849624634,
      1.9597913026809692,
      0.19707462191581726,
      -2.1676690578460693,
      3.123483657836914,
      0.09060195833444595,
      -0.873664915561676,
      -0.8765605092048645,
      -1.6955057382583618,
      -0.7837691903114319,
      0.48687875270843506,
      -1.6397554874420166,
      -1.1393989324569702,
      -0.6954989433288574,
      -0.8769226670265198,
      0.20902690291404724,
      2.5956904888153076,
      1.527127742767334,
      1.8774758577346802,
      2.5756964683532715,
      -1.459274172782898,
      -1.3395158052444458,
      2.8075876235961914,
      -2.1757614612579346,
      -3.6096339225769043,
      0.5651314854621887,
      -1.2880297899246216,
      0.11965274065732956,
      -0.6598354578018188,
      0.13000400364398956,
      -0.36679187417030334,
      0.7366917133331299,
      0.7584720849990845,
      0.8195136189460754,
      3.909318208694458,
      -0.5473931431770325,
      0.6112995147705078,
      0.47654029726982117,
      -0.6226933002471924,
      0.07939298450946808,
      2.019773006439209,
      2.1390163898468018,
      0.08352072536945343,
      0.36291003227233887,
      -0.8630198240280151,
      -0.026320934295654297,
      -0.2466583251953125,
      3.0105509757995605,
      -0.18707622587680817,
      -0.2841208279132843,
      -0.1769045740365982,
      -0.6570380330085754,
      -0.22139005362987518,
      1.3507248163223267,
      0.2906348407268524,
      -0.421709269285202,
      0.5201424956321716,
      0.014715908095240593,
      -0.07076483964920044,
      -1.1996662616729736,
      -1.7306513786315918,
      -1.4117006063461304,
      1.1137752532958984,
      -0.9737533330917358,
      -0.7880637645721436,
      0.01788255013525486,
      -1.5264662504196167,
      -2.0893020629882812,
      0.7875684499740601,
      1.0660351514816284,
      -0.8470932841300964,
      0.8591365814208984,
      -1.1413007974624634,
      -1.5043655633926392,
      0.7717902064323425,
      -1.2946385145187378,
      -1.467971682548523,
      0.03161584213376045,
      -0.10456262528896332,
      -0.2710491716861725,
      0.9229640364646912,
      -1.167560338973999,
      0.19520486891269684,
      -1.0752778053283691,
      0.965379536151886,
      -1.3129407167434692,
      -0.6734727621078491,
      0.4030149281024933,
      -0.8928231596946716,
      -0.9889086484909058,
      0.6099780797958374,
      -0.9844449162483215,
      -1.398922324180603,
      -0.5328451991081238,
      0.5468340516090393,
      0.4456050992012024,
      1.0604153871536255,
      -0.24845628440380096,
      0.36995232105255127,
      0.09947771579027176,
      0.5545450448989868,
      -0.28621765971183777,
      0.25928255915641785,
      0.2437416911125183,
      -1.6080701351165771,
      1.5544630289077759,
      -2.2564187049865723,
      -2.409498691558838,
      1.2898225784301758,
      1.7735793590545654,
      0.7779689431190491,
      -0.34802770614624023,
      -1.5654278993606567,
      -0.7963880300521851,
      3.691366195678711,
      0.18437248468399048,
      -0.9109030961990356,
      -2.644320249557495,
      0.11991744488477707,
      3.204352855682373,
      1.9598345756530762,
      2.2026939392089844,
      -0.076925128698349,
      1.7734891176223755,
      -0.6546041369438171,
      -0.9117118120193481,
      2.6269009113311768,
      -2.5023629665374756,
      -2.3584811687469482,
      1.704688549041748,
      -2.646428346633911,
      -1.618883490562439,
      -0.24650831520557404,
      -1.5562938451766968,
      0.9146450161933899,
      -0.043162230402231216,
      -2.9066412448883057,
      0.7806030511856079,
      -1.680983304977417,
      3.112614631652832,
      -2.67349910736084,
      0.7659271955490112,
      1.7522499561309814,
      -0.22702527046203613,
      0.39162012934684753,
      1.7655829191207886,
      0.11489950865507126,
      -3.075596570968628,
      1.9869424104690552,
      0.002504979958757758,
      2.262932777404785,
      -0.6195276379585266,
      1.2575340270996094,
      1.8782470226287842,
      -0.07566718012094498,
      1.92271888256073,
      -0.19920086860656738,
      1.7880972623825073,
      -2.1298470497131348,
      -2.4233078956604004,
      0.4838297665119171,
      2.423374891281128,
      1.5804516077041626,
      -0.12321631610393524,
      0.8790243268013,
      -2.0467216968536377,
      1.407719612121582,
      -0.44894689321517944,
      -2.3094778060913086,
      -2.883720636367798,
      0.7890859246253967,
      1.1339030265808105,
      2.283156394958496,
      1.6825852394104004,
      -0.5935757756233215,
      2.4993743896484375,
      -1.7562025785446167,
      0.31292450428009033,
      2.526705741882324,
      -2.8503706455230713,
      -2.8202779293060303,
      1.391785740852356,
      -1.8012250661849976,
      -0.2895807921886444,
      1.1350831985473633,
      -0.9149913191795349,
      1.1869163513183594,
      -1.3618885278701782,
      0.4921765923500061,
      -0.6374995708465576,
      -2.579392433166504,
      0.5342131853103638,
      -1.6471127271652222,
      -0.696955144405365,
      1.4026645421981812,
      -0.958723247051239,
      -2.534168004989624,
      -2.5526375770568848,
      0.2004234492778778,
      -0.30320900678634644,
      1.0544308423995972,
      -0.2812901437282562,
      0.6289718747138977,
      -1.2750849723815918,
      0.5446196794509888,
      -0.06676151603460312,
      0.11600510776042938,
      0.3099687397480011,
      -0.4411333203315735,
      1.0903534889221191,
      -0.1519584208726883,
      -3.602261543273926,
      -0.06810387223958969,
      -0.15133260190486908,
      0.3698287606239319,
      -1.3954367637634277,
      -1.5363719463348389,
      -1.3430819511413574,
      -1.0548759698867798,
      -1.0380666255950928,
      -0.22473634779453278,
      -2.7460622787475586,
      -0.36582526564598083,
      0.8621910214424133,
      0.247345969080925,
      0.13903801143169403,
      -0.1278693526983261,
      1.5561909675598145,
      -0.8856605887413025,
      -1.6637862920761108,
      4.261366844177246,
      -3.1133577823638916,
      -3.729680061340332,
      2.0086820125579834,
      -1.9716544151306152,
      -0.43902334570884705,
      -1.1599193811416626,
      -0.17326131463050842,
      -0.7494447827339172,
      1.8775337934494019,
      -0.8861700892448425,
      0.4979415535926819,
      -3.085566520690918,
      -0.420205295085907,
      0.17922115325927734,
      0.22250878810882568,
      -0.04362035542726517,
      -0.47275421023368835,
      0.4748029410839081,
      -0.1537424772977829,
      -0.809135913848877,
      -1.352194905281067,
      0.6077254414558411,
      0.6984602212905884,
      0.6011335849761963,
      -3.014122724533081,
      0.2210603654384613,
      0.4900825023651123,
      -1.3894643783569336,
      1.9224584102630615,
      0.2707360088825226,
      -0.2553904354572296,
      2.0227112770080566,
      -0.8140082359313965,
      0.6461577415466309,
      -1.5942155122756958,
      0.7119895815849304,
      -0.2593823969364166,
      1.8840904235839844,
      0.6839045882225037,
      0.7359270453453064,
      -0.8215823173522949,
      0.7481609582901001,
      -0.41261520981788635,
      -0.4420934319496155,
      4.522834300994873,
      -0.09344165772199631,
      0.4165344536304474,
      1.6794925928115845,
      -0.7849885821342468,
      0.8817651271820068,
      3.0844459533691406,
      0.0752761960029602,
      -1.0561738014221191,
      -0.14371946454048157,
      -0.7727673649787903,
      -0.8719460368156433,
      -1.0228173732757568,
      1.3758949041366577,
      2.2870726585388184,
      -2.1961307525634766,
      -1.7199022769927979,
      -0.5681422352790833,
      1.2958649396896362,
      -3.750227451324463,
      0.7421258687973022,
      -5.742337226867676,
      0.9372755289077759,
      1.128774881362915,
      2.0700161457061768,
      -5.164913654327393,
      -1.6165310144424438,
      -1.4857391119003296,
      -1.2130120992660522,
      0.7817902565002441,
      -1.28935968875885,
      0.5778648853302002,
      0.3449974060058594,
      -2.248908519744873,
      1.6249287128448486,
      0.4245583117008209,
      -1.7055248022079468,
      2.5277020931243896,
      0.2308531552553177,
      0.5067623853683472,
      -1.0538078546524048,
      2.4717648029327393,
      0.6875956654548645,
      -0.31180888414382935,
      -0.15582981705665588,
      -0.16058406233787537,
      0.7788417339324951,
      2.541268825531006,
      0.010616717860102654,
      -0.4234458804130554,
      -0.5260668992996216,
      1.546976089477539,
      0.8184962868690491,
      1.2266324758529663,
      1.044958233833313,
      -1.2287951707839966,
      1.083173394203186,
      -0.14311502873897552,
      0.7164199352264404,
      0.6880154609680176,
      0.22216838598251343,
      -0.02699269726872444,
      -0.21097499132156372,
      -2.034234046936035,
      1.6975682973861694,
      -0.4346981346607208,
      -0.5943389534950256,
      0.5977752804756165,
      0.7700639367103577,
      0.20610299706459045,
      -0.370615154504776,
      0.47459331154823303,
      -1.183479905128479,
      -0.050391700118780136,
      -0.8359096646308899,
      -1.201017141342163,
      -0.383175253868103,
      0.4780716598033905,
      -0.45577359199523926,
      1.7712510824203491,
      1.2037636041641235,
      -1.1256965398788452,
      1.273577094078064,
      -2.018690824508667,
      -0.033317048102617264,
      1.3836517333984375,
      -1.1862751245498657,
      -1.5330036878585815,
      0.5308794975280762,
      0.26840493083000183,
      0.05713139846920967,
      0.020168650895357132,
      -0.03849415481090546,
      -0.006738537456840277,
      -0.01953452080488205,
      -0.05987824127078056,
      -0.0047838445752859116,
      -0.05131728574633598,
      0.0789719969034195,
      0.07267796248197556,
      -0.07938273251056671,
      0.07868163287639618,
      0.01503727026283741,
      0.07588773220777512,
      0.02974577061831951,
      0.016749495640397072,
      -0.06217564642429352,
      0.05356345325708389,
      0.05167848989367485,
      0.06980355829000473,
      -0.042977482080459595,
      -0.010101040825247765,
      -0.030641233548521996,
      -0.016445502638816833,
      0.04012278839945793,
      0.01288063544780016
    ]
  },
  "hiddenLayers": [
    {
      "inputMatrix": {
        "rows": 20,
        "columns": 26,
        "weights": [
          -0.09421136230230331,
          -0.6239321827888489,
          -0.26705458760261536,
          -0.14932973682880402,
          0.6025652289390564,
          0.025561770424246788,
          0.06083919480443001,
          0.23188698291778564,
          0.5630105137825012,
          0.35064417123794556,
          0.5365748405456543,
          0.219615638256073,
          -0.03894909843802452,
          2.430194854736328,
          1.9443758726119995,
          0.09361925721168518,
          -0.1497320532798767,
          -0.1835084855556488,
          0.11521302163600922,
          0.1296195387840271,
          -0.12825429439544678,
          0.021183650940656662,
          0.7327556610107422,
          0.8654129505157471,
          0.5811817049980164,
          -0.12296116352081299,
          0.6089317798614502,
          -0.4017069935798645,
          -0.7010238766670227,
          0.6885274052619934,
          0.5429542660713196,
          -0.567704975605011,
          0.4838094413280487,
          -0.9103096723556519,
          -0.0014919429086148739,
          0.8013425469398499,
          -0.053020887076854706,
          -0.6338539123535156,
          -0.7689651250839233,
          0.38297274708747864,
          0.16083621978759766,
          0.8249896168708801,
          0.16298778355121613,
          -0.3959457278251648,
          1.0253545045852661,
          -0.691985011100769,
          -1.1685558557510376,
          0.8193035125732422,
          -0.4146125018596649,
          -1.1383209228515625,
          0.4644941985607147,
          -0.4405427575111389,
          0.550345242023468,
          -1.1099320650100708,
          -0.5827809572219849,
          1.0517998933792114,
          1.0670688152313232,
          0.22501112520694733,
          -0.4281073212623596,
          -0.06292025744915009,
          -0.6713339686393738,
          -0.023739881813526154,
          -0.41060060262680054,
          -1.2690051794052124,
          -1.2271406650543213,
          -0.06592761725187302,
          -0.39349886775016785,
          0.6899446249008179,
          0.7756239175796509,
          -1.261293649673462,
          0.845988392829895,
          -0.6597305536270142,
          -0.10219971835613251,
          0.5267836451530457,
          -0.3013167977333069,
          -0.12397335469722748,
          0.7255426049232483,
          -1.2083927392959595,
          0.6252884268760681,
          -1.037610411643982,
          -0.40244805812835693,
          0.990990400314331,
          1.5936243534088135,
          0.20217569172382355,
          0.3492062985897064,
          0.3086169362068176,
          -0.8086814880371094,
          0.09802518039941788,
          -0.16263246536254883,
          -1.1303938627243042,
          -0.9632087349891663,
          0.5347603559494019,
          -0.18193188309669495,
          0.5070364475250244,
          0.645057201385498,
          -1.357530117034912,
          0.8958077430725098,
          -0.4812512695789337,
          -0.05483037233352661,
          0.3561958074569702,
          -0.5113475918769836,
          -0.7046436071395874,
          0.6922816038131714,
          -0.5028616189956665,
          0.5246628522872925,
          -1.3207944631576538,
          0.059396371245384216,
          1.0554908514022827,
          0.6524722576141357,
          0.8330278992652893,
          -1.190252423286438,
          -0.12379573285579681,
          -1.503073811531067,
          0.7760382294654846,
          -1.2380820512771606,
          -1.0013062953948975,
          -0.058358334004879,
          -1.26002836227417,
          -1.5592687129974365,
          -0.2652023732662201,
          0.9596211910247803,
          -1.1000884771347046,
          0.1705186814069748,
          -0.3153594136238098,
          -0.3803764283657074,
          0.3259929120540619,
          -0.7910031676292419,
          -0.9161241054534912,
          0.8778414726257324,
          -0.14848582446575165,
          0.6311661005020142,
          0.8026666045188904,
          -0.26949599385261536,
          -1.0254442691802979,
          -0.9405627250671387,
          -0.18192477524280548,
          -0.998568058013916,
          0.007117811124771833,
          -0.8609335422515869,
          0.8666597008705139,
          -0.12168180197477341,
          0.23561598360538483,
          1.0302715301513672,
          -0.2432469129562378,
          0.8237200379371643,
          0.8183732032775879,
          0.1352498084306717,
          0.469583123922348,
          0.24479761719703674,
          -0.44538944959640503,
          0.049684248864650726,
          1.0412421226501465,
          -0.8212382197380066,
          -1.0433531999588013,
          -0.5519545674324036,
          0.16712896525859833,
          -0.9362492561340332,
          0.18342767655849457,
          0.283674418926239,
          -0.9064235687255859,
          -1.3883836269378662,
          -0.4482918083667755,
          -0.33790040016174316,
          -0.5985723733901978,
          0.45852264761924744,
          -1.0699583292007446,
          0.3253186345100403,
          0.9888272881507874,
          0.5517294406890869,
          -1.412453293800354,
          -0.7192388772964478,
          -0.9940037131309509,
          -0.8087900876998901,
          1.4328476190567017,
          -1.00835382938385,
          1.0330538749694824,
          -0.6403715014457703,
          -0.28765061497688293,
          0.27204641699790955,
          0.20926789939403534,
          -0.2080872356891632,
          0.3739998936653137,
          1.177346110343933,
          -0.8986018300056458,
          -0.5397935509681702,
          -0.26183727383613586,
          0.6915976405143738,
          0.6333557963371277,
          -0.6833380460739136,
          -0.4822496175765991,
          -0.896762490272522,
          0.5461699366569519,
          -0.11463682353496552,
          -1.0724586248397827,
          -0.5444371104240417,
          -0.014823581092059612,
          -0.09121018648147583,
          0.5332960486412048,
          0.670325756072998,
          -1.0133370161056519,
          1.2065070867538452,
          -1.2353757619857788,
          -1.185969591140747,
          1.0464208126068115,
          -1.0169997215270996,
          -1.2698347568511963,
          0.627770721912384,
          -0.2740268409252167,
          -0.07427848130464554,
          0.0991143137216568,
          0.34021085500717163,
          0.12912513315677643,
          -0.44834378361701965,
          0.2928701639175415,
          -0.35025620460510254,
          -1.2502747774124146,
          -0.19038955867290497,
          -0.8200948238372803,
          -0.31545490026474,
          0.5431462526321411,
          0.35875576734542847,
          -1.078939437866211,
          -0.4705103635787964,
          -0.2735607922077179,
          -0.12100128084421158,
          0.22342300415039062,
          -0.17568853497505188,
          0.28729599714279175,
          -0.23073260486125946,
          -0.37589898705482483,
          -0.0836242139339447,
          0.14792229235172272,
          -0.7045536637306213,
          0.9765254855155945,
          0.10312642902135849,
          0.2900350093841553,
          -0.69527268409729,
          1.3893035650253296,
          0.7992324829101562,
          0.40970703959465027,
          0.4142651855945587,
          0.7416085004806519,
          0.26493480801582336,
          -0.7512362599372864,
          0.19828374683856964,
          -0.5165292024612427,
          -1.6241276264190674,
          1.431398868560791,
          1.17392897605896,
          0.8977850675582886,
          0.2668812870979309,
          -0.3817923367023468,
          0.6931684613227844,
          -0.24391619861125946,
          0.8086881637573242,
          0.3079291582107544,
          0.030574174597859383,
          0.12447027117013931,
          0.23378486931324005,
          -0.9601901173591614,
          0.028101550415158272,
          -0.09025499224662781,
          -0.1343032419681549,
          -0.07714629173278809,
          0.3044965863227844,
          -0.2368023544549942,
          -0.022607991471886635,
          0.39162689447402954,
          0.06791561096906662,
          1.2032183408737183,
          0.29688310623168945,
          -0.1680736243724823,
          -0.22902359068393707,
          1.2599126100540161,
          1.231819748878479,
          0.3026237487792969,
          0.2515295147895813,
          -0.21706973016262054,
          0.12257024645805359,
          0.11754359304904938,
          0.09668660908937454,
          -0.006602802313864231,
          0.20963971316814423,
          0.44733741879463196,
          0.03617378696799278,
          -0.17680872976779938,
          0.5308972597122192,
          0.06632731109857559,
          -0.8295437097549438,
          0.5113548040390015,
          0.5748378038406372,
          0.46588942408561707,
          -0.09953843802213669,
          0.018570519983768463,
          0.4619724452495575,
          1.6978873014450073,
          0.44838759303092957,
          -0.4678909182548523,
          -0.8025648593902588,
          0.6231493949890137,
          1.089477777481079,
          1.3071924448013306,
          1.1322616338729858,
          -0.19614726305007935,
          0.6293107271194458,
          -0.5589959025382996,
          0.2560473680496216,
          0.025727594271302223,
          -0.41148242354393005,
          0.5015422701835632,
          -0.24712517857551575,
          -1.4330414533615112,
          0.08595502376556396,
          -0.8169653415679932,
          0.231820210814476,
          -0.34493258595466614,
          -0.01915324293076992,
          0.33528777956962585,
          -0.7818906307220459,
          -0.15485109388828278,
          0.09889078140258789,
          -0.9950533509254456,
          -0.24641293287277222,
          0.29081273078918457,
          0.9724543690681458,
          -0.911983847618103,
          -0.13525675237178802,
          0.01333361305296421,
          -0.03346243500709534,
          -0.17545875906944275,
          -0.27575820684432983,
          -0.06460201740264893,
          0.34192022681236267,
          -0.2250903844833374,
          0.32484501600265503,
          0.9802966117858887,
          -0.12188573181629181,
          0.3481324315071106,
          0.1464288830757141,
          -0.5837570428848267,
          -0.4206703305244446,
          -0.4522716701030731,
          0.02018955536186695,
          -0.007968209683895111,
          -1.0695856809616089,
          -1.3602404594421387,
          -0.5145419239997864,
          -1.6220546960830688,
          -0.00004265015013515949,
          -0.1446690410375595,
          -0.5912947654724121,
          -0.6196000576019287,
          -0.39836910367012024,
          -0.07289834320545197,
          0.06809800863265991,
          0.04587026685476303,
          0.10172022879123688,
          0.20995169878005981,
          -0.6758803725242615,
          0.5980801582336426,
          0.146165132522583,
          -0.004491342697292566,
          0.11532936245203018,
          -0.5263359546661377,
          0.6529558300971985,
          0.5711783766746521,
          -0.686647355556488,
          2.1510608196258545,
          -0.26911401748657227,
          1.2649598121643066,
          -0.2934891879558563,
          0.24854886531829834,
          -0.3655364513397217,
          1.420889139175415,
          -1.6822612285614014,
          -0.5174493789672852,
          -1.1359957456588745,
          0.1778021603822708,
          0.08037387579679489,
          0.9406195282936096,
          0.8322428464889526,
          -0.6130409240722656,
          0.623944103717804,
          -0.37946468591690063,
          0.6820768117904663,
          0.3602985739707947,
          -1.0317344665527344,
          -0.16604386270046234,
          -0.15774716436862946,
          -0.88065505027771,
          0.36993592977523804,
          1.632535696029663,
          -0.9296234250068665,
          -0.09924165159463882,
          -1.2792502641677856,
          0.04918818175792694,
          -0.9723121523857117,
          -0.4623371660709381,
          0.014756174758076668,
          2.037388563156128,
          -0.8145563006401062,
          0.35787463188171387,
          -0.2672714293003082,
          -0.3394804000854492,
          0.43396762013435364,
          0.23579251766204834,
          -0.04898424819111824,
          0.5491603016853333,
          -0.2379581332206726,
          -0.309599906206131,
          -0.11890155076980591,
          1.1083351373672485,
          -1.2337881326675415,
          -0.7287866473197937,
          -0.1801217496395111,
          -1.0307023525238037,
          0.861391544342041,
          -1.377549648284912,
          -0.2461998611688614,
          -0.33824092149734497,
          0.8869410157203674,
          0.6775383353233337,
          -0.622832179069519,
          -0.5694601535797119,
          -1.210091471672058,
          0.3662659525871277,
          0.544431746006012,
          -1.1971495151519775,
          -0.3439127802848816,
          -0.12889833748340607,
          -0.09935834258794785,
          0.46350985765457153,
          0.40281185507774353,
          -0.8815003037452698,
          0.8664512038230896,
          -0.9923997521400452,
          -1.1566755771636963,
          0.3364834785461426,
          -0.8489086031913757,
          -1.0447793006896973,
          0.9120259881019592,
          -0.14612890779972076,
          0.05287183076143265,
          -0.4375777542591095,
          -0.21342720091342926,
          -0.23619365692138672,
          0.5001794099807739,
          0.465031236410141,
          -0.03412577509880066,
          0.3918762505054474,
          0.3345661759376526,
          1.0543607473373413,
          -0.1082824096083641,
          0.23604358732700348,
          0.24480001628398895,
          1.4193376302719116,
          1.4620349407196045,
          0.18558263778686523,
          0.24858082830905914,
          0.04169866815209389,
          0.2504158914089203,
          -0.13688208162784576,
          0.0025348211638629436,
          -0.20553722977638245,
          0.3440418839454651,
          1.0368531942367554,
          0.0575830452144146,
          -0.18782112002372742,
          0.13864438235759735,
          -0.16876977682113647,
          -0.5534090995788574,
          0.8929958939552307,
          0.9864437580108643,
          0.16917721927165985,
          -0.7738547325134277,
          -1.6055259704589844,
          0.6868827939033508,
          -0.7059950232505798,
          -0.198171004652977,
          0.04321587085723877,
          -0.7129696011543274,
          0.8408066034317017,
          -0.10922499001026154,
          0.9131858348846436,
          0.6066257357597351,
          -0.5728350877761841,
          1.15059494972229,
          0.11441510170698166,
          -1.03646981716156,
          0.3451991677284241,
          0.692093551158905,
          0.3731228709220886,
          0.3360852897167206,
          -0.9023704528808594,
          1.2327204942703247,
          0.3328794836997986,
          -1.1545933485031128,
          0.8268120884895325,
          -0.38708657026290894,
          0.4347763955593109,
          -0.3195418119430542,
          0.033947426825761795,
          -0.5171374678611755,
          0.5977176427841187,
          -0.7252989411354065,
          -0.3598170876502991,
          -0.7636607885360718,
          -0.44993507862091064,
          -0.15570375323295593,
          1.2711200714111328,
          0.9845646619796753,
          -0.12667788565158844,
          0.9188886284828186,
          -1.1289316415786743,
          0.019594764336943626,
          1.056503415107727,
          -1.1900147199630737,
          -1.0344109535217285,
          0.12708379328250885,
          -0.9577492475509644
        ]
      },
      "inputHidden": {
        "rows": 20,
        "columns": 20,
        "weights": [
          1.5625627040863037,
          0.6477046608924866,
          -0.6635056734085083,
          -0.935632586479187,
          -0.0021724652033299208,
          0.3614976406097412,
          0.0364469513297081,
          0.3822617828845978,
          0.2615460455417633,
          -0.2337702363729477,
          -1.369996428489685,
          0.16303503513336182,
          -1.0869299173355103,
          1.6870149374008179,
          0.4081932604312897,
          -0.11203227192163467,
          0.6601038575172424,
          -0.1486070454120636,
          0.9002540111541748,
          0.2218068540096283,
          0.15247683227062225,
          -1.648533821105957,
          0.988426923751831,
          1.1364237070083618,
          -2.0563695430755615,
          -0.2651485800743103,
          -2.080876588821411,
          -1.0291799306869507,
          2.6099040508270264,
          0.5080909729003906,
          0.6769459247589111,
          -0.74170982837677,
          -0.5221088528633118,
          0.9259737730026245,
          0.42397788166999817,
          0.4629436135292053,
          -0.6883538365364075,
          -0.2282526195049286,
          -1.2612262964248657,
          -0.8143652677536011,
          1.76096510887146,
          0.35815444588661194,
          0.47796809673309326,
          -0.6863789558410645,
          -1.817020058631897,
          -0.03479686379432678,
          -0.08578593283891678,
          0.17187388241291046,
          1.5318530797958374,
          0.20570765435695648,
          -1.2007514238357544,
          0.42899245023727417,
          -0.5396867990493774,
          0.3091953694820404,
          -0.5335347652435303,
          -0.2914508283138275,
          -0.13252581655979156,
          -1.6493964195251465,
          -0.11020492762327194,
          0.06837574392557144,
          -0.22038446366786957,
          -1.0483781099319458,
          0.14746160805225372,
          0.6159110069274902,
          -0.18317492306232452,
          0.03395913913846016,
          -0.612825334072113,
          -0.46199774742126465,
          -0.2758800685405731,
          1.0484338998794556,
          0.19863773882389069,
          0.47561517357826233,
          -0.6444160342216492,
          0.6046671867370605,
          0.04899567738175392,
          0.6027074456214905,
          -0.3478070795536041,
          -0.6992673277854919,
          -0.43362218141555786,
          -0.4259564280509949,
          -0.4951934516429901,
          0.4007512927055359,
          0.24693098664283752,
          0.24227923154830933,
          0.01799195632338524,
          0.8020035624504089,
          -2.048884153366089,
          0.05281912535429001,
          -1.0654677152633667,
          1.1535918712615967,
          -0.07577189058065414,
          0.5701961517333984,
          -2.17185640335083,
          -1.573079228401184,
          -0.08838189393281937,
          0.699654221534729,
          0.14133380353450775,
          -1.1764525175094604,
          1.2321630716323853,
          -0.1311613768339157,
          -0.6622700095176697,
          -0.8016175627708435,
          -0.8802576661109924,
          -0.6652853488922119,
          -1.2215678691864014,
          0.14321216940879822,
          0.7488349676132202,
          0.3330417275428772,
          2.263740301132202,
          -0.35796064138412476,
          1.0727921724319458,
          0.5694213509559631,
          0.3846796452999115,
          -0.14224828779697418,
          0.6585110425949097,
          -2.202562093734741,
          0.3970896899700165,
          0.13498972356319427,
          -1.427075982093811,
          0.2115902304649353,
          -0.7869548201560974,
          -0.08652443438768387,
          0.7826730012893677,
          0.17234760522842407,
          -0.3763929307460785,
          0.48072728514671326,
          -1.1954210996627808,
          -0.39445263147354126,
          -0.1619739532470703,
          -0.7012665867805481,
          1.2576322555541992,
          -0.32052576541900635,
          0.5684996843338013,
          0.23878178000450134,
          1.0995205640792847,
          0.4644748270511627,
          0.008590745739638805,
          -0.22976316511631012,
          0.4604722857475281,
          -0.4220006465911865,
          -0.11287176609039307,
          0.041089776903390884,
          2.5533320903778076,
          0.19764022529125214,
          -1.1162673234939575,
          0.25236353278160095,
          0.671627402305603,
          -0.3642074763774872,
          0.5055473446846008,
          1.4084928035736084,
          0.23800697922706604,
          -0.09482771903276443,
          -0.526329517364502,
          1.0887441635131836,
          0.026065768674016,
          -0.5968834161758423,
          -0.4900643229484558,
          -1.1206486225128174,
          -1.8865739107131958,
          -0.8387562036514282,
          -3.109666109085083,
          1.1052156686782837,
          -1.2031949758529663,
          -0.8913189768791199,
          0.6314844489097595,
          2.1276097297668457,
          -1.5609382390975952,
          2.3357298374176025,
          0.414858341217041,
          1.4191019535064697,
          2.3744471073150635,
          0.36746686697006226,
          -0.0648145079612732,
          -0.8261367678642273,
          -0.10433988273143768,
          0.6516996026039124,
          2.180997848510742,
          0.5257270932197571,
          3.1441102027893066,
          1.147691011428833,
          -0.695431649684906,
          -0.585894763469696,
          0.39230552315711975,
          0.03279995545744896,
          1.0458288192749023,
          -0.926185667514801,
          -0.22269141674041748,
          -0.45061352849006653,
          -0.0513121522963047,
          0.6521444320678711,
          1.0505986213684082,
          0.006826181896030903,
          1.119292140007019,
          -0.6383416056632996,
          -0.06157270073890686,
          0.31295379996299744,
          -0.4705404043197632,
          0.46051183342933655,
          0.7902314066886902,
          -0.9462414979934692,
          1.622601866722107,
          1.3600445985794067,
          -0.806562066078186,
          -0.9390832185745239,
          2.2875819206237793,
          1.111136555671692,
          2.2079503536224365,
          0.8230526447296143,
          -1.4083343744277954,
          -0.10703082382678986,
          -2.138153553009033,
          0.3967258036136627,
          1.602201223373413,
          -0.3012561500072479,
          0.09898774325847626,
          -2.596369981765747,
          1.059576153755188,
          0.28514090180397034,
          2.9020867347717285,
          0.3668530583381653,
          0.17034028470516205,
          0.4665866494178772,
          -0.29221752285957336,
          -0.8831368684768677,
          -1.0143194198608398,
          0.9703839421272278,
          -0.7650149464607239,
          0.9125799536705017,
          0.45035555958747864,
          0.5293336510658264,
          -0.24549360573291779,
          1.2345318794250488,
          -0.6349632143974304,
          1.3373445272445679,
          -1.226361632347107,
          -0.9650970697402954,
          0.7346987128257751,
          -0.1336115449666977,
          0.1559208333492279,
          0.6367661356925964,
          1.276604413986206,
          -0.2265254557132721,
          1.069347620010376,
          0.5346185564994812,
          -1.9645090103149414,
          0.3198067247867584,
          -2.4136295318603516,
          -0.6383554339408875,
          -0.03226415812969208,
          0.6012386083602905,
          -1.333056092262268,
          0.39388227462768555,
          -3.044070243835449,
          2.0534634590148926,
          -1.157289981842041,
          -0.998908519744873,
          -0.4593777656555176,
          -2.0879549980163574,
          -0.02295505255460739,
          -0.6368768811225891,
          -1.4472846984863281,
          1.5714222192764282,
          0.9421738982200623,
          0.2554108500480652,
          -0.5951490998268127,
          1.2277082204818726,
          1.3215574026107788,
          -0.4325525462627411,
          1.8793933391571045,
          3.137021780014038,
          0.29164570569992065,
          0.09566760063171387,
          -0.692888081073761,
          0.5073192119598389,
          -1.271041750907898,
          -1.5136914253234863,
          -0.27694249153137207,
          -2.721862554550171,
          2.1032097339630127,
          -1.150416612625122,
          -0.5374042987823486,
          0.4081595540046692,
          -0.9149906635284424,
          -0.3535350561141968,
          0.3647315204143524,
          1.240713357925415,
          -0.04939300939440727,
          0.733505368232727,
          1.083829641342163,
          0.3155863285064697,
          1.213714599609375,
          0.6863256692886353,
          0.47053030133247375,
          -0.03725804015994072,
          0.2634824812412262,
          -0.16720068454742432,
          0.6931928396224976,
          0.6650791168212891,
          -0.16038218140602112,
          0.01133711263537407,
          -1.040932297706604,
          -0.15510909259319305,
          -0.6168002486228943,
          0.020751476287841797,
          0.04224149510264397,
          1.0966733694076538,
          -1.3987457752227783,
          -0.13972540199756622,
          1.774536371231079,
          1.8361767530441284,
          1.5627895593643188,
          1.0259448289871216,
          -0.43282487988471985,
          -0.29628270864486694,
          0.7278127670288086,
          -1.6675381660461426,
          -0.18810483813285828,
          0.42511019110679626,
          0.11142817884683609,
          0.328101247549057,
          0.0385771282017231,
          0.6207747459411621,
          -0.6033700704574585,
          -0.6292261481285095,
          -0.393565833568573,
          0.7987221479415894,
          0.2788625657558441,
          0.798164427280426,
          1.1620547771453857,
          0.7297138571739197,
          0.37780052423477173,
          0.9357484579086304,
          -0.0659460574388504,
          -0.9295963644981384,
          -0.8931267857551575,
          -0.6414149403572083,
          0.3103373944759369,
          1.0036933422088623,
          -0.31098711490631104,
          0.7061678767204285,
          1.4913346767425537,
          -0.8288183808326721,
          -0.135672926902771,
          -0.6077395081520081,
          -0.14360952377319336,
          -1.041184663772583,
          0.6624994277954102,
          1.1029506921768188,
          -1.4238452911376953,
          0.7853557467460632,
          -3.1412131786346436,
          0.01807493530213833,
          -1.327831506729126,
          0.4605289697647095,
          0.2848280072212219,
          0.24142655730247498,
          0.6417994499206543,
          -0.48809975385665894,
          -0.27382713556289673,
          -0.0034279178362339735,
          0.783165693283081,
          1.3438818454742432,
          0.8512772917747498,
          0.042551953345537186,
          -1.0843431949615479,
          -0.5013148784637451,
          1.422761082649231,
          0.1014951840043068,
          0.7431714534759521,
          1.8250818252563477,
          -1.2380253076553345,
          -0.11783844232559204,
          -1.6259233951568604,
          0.8340027332305908,
          0.18097878992557526,
          -0.7312113046646118,
          -0.7152319550514221,
          -1.7907522916793823,
          -0.02364300936460495,
          -0.4468127489089966,
          0.3008263409137726,
          0.5276230573654175,
          -0.08660954236984253,
          -0.4449886977672577,
          0.7696068286895752,
          0.8945848345756531,
          0.6881940960884094,
          0.7780745029449463,
          0.6002546548843384,
          0.4701268970966339,
          0.13474959135055542,
          0.13350063562393188,
          -0.766009509563446,
          0.765477180480957,
          -0.8765254616737366,
          0.3347627520561218,
          0.5783029794692993,
          -0.11265847831964493,
          -1.099366545677185,
          1.2649610042572021
        ]
      },
      "inputBias": {
        "rows": 20,
        "columns": 1,
        "weights": [
          -1.0882664918899536,
          -0.7377139329910278,
          -0.19586537778377533,
          -0.2806259095668793,
          0.35881441831588745,
          -1.0831151008605957,
          -1.037142038345337,
          -0.3264126777648926,
          -0.7424759864807129,
          -0.3727301061153412,
          -1.4725972414016724,
          -1.0441961288452148,
          -1.0396486520767212,
          -0.7738022804260254,
          0.2559542655944824,
          -0.43286779522895813,
          -0.8701018691062927,
          -0.6447442770004272,
          -0.3098982274532318,
          -0.41249972581863403
        ]
      },
      "forgetMatrix": {
        "rows": 20,
        "columns": 26,
        "weights": [
          0.10031432658433914,
          -1.4694035053253174,
          0.9230147004127502,
          0.3222654461860657,
          0.42261239886283875,
          0.209808349609375,
          0.6718313097953796,
          0.7346189618110657,
          -0.18898752331733704,
          -1.8939486742019653,
          0.1904260218143463,
          -0.16375713050365448,
          -0.6059277653694153,
          -1.039943814277649,
          -1.4720494747161865,
          -0.6563349366188049,
          -0.1260758936405182,
          -0.3152863681316376,
          -0.42959731817245483,
          0.1929905265569687,
          0.2651892900466919,
          -0.9737260341644287,
          0.4579368233680725,
          0.5720226168632507,
          0.29892316460609436,
          0.7402887344360352,
          0.2833581268787384,
          -0.09599316865205765,
          -0.8782683610916138,
          0.22659319639205933,
          0.19381876289844513,
          0.18665814399719238,
          -0.2737392485141754,
          0.13060393929481506,
          -0.11558587104082108,
          0.2930580675601959,
          -0.3537663519382477,
          -0.19355647265911102,
          -0.809307873249054,
          0.6885336637496948,
          1.2143052816390991,
          0.5255438685417175,
          0.2961195111274719,
          0.4079308807849884,
          0.4953543245792389,
          -0.21685504913330078,
          -0.23372401297092438,
          1.030739426612854,
          -0.376368910074234,
          -0.6010044813156128,
          0.5194846391677856,
          -0.5430032014846802,
          0.789981484413147,
          0.2417365312576294,
          -1.4364280700683594,
          -1.1529587507247925,
          -0.9205352067947388,
          0.7133668065071106,
          -0.7718537449836731,
          0.023086680099368095,
          -0.8666253089904785,
          0.2610227167606354,
          -0.6771646738052368,
          0.23407718539237976,
          0.45728936791419983,
          -0.428450345993042,
          0.3999142646789551,
          0.40735629200935364,
          -0.07202143222093582,
          1.155048131942749,
          0.45291873812675476,
          -0.36523380875587463,
          -0.6881528496742249,
          1.8472964763641357,
          -1.6455094814300537,
          -2.2122082710266113,
          0.39118945598602295,
          -0.4145827889442444,
          0.5202774405479431,
          -0.9024975299835205,
          -0.4100854992866516,
          0.4135778248310089,
          0.8726809620857239,
          0.22778216004371643,
          0.1085435301065445,
          0.40921977162361145,
          -0.20408190786838531,
          0.09592301398515701,
          -0.5273664593696594,
          -0.667073667049408,
          -0.665402889251709,
          0.3728550970554352,
          0.18773730099201202,
          0.5776368975639343,
          0.38728782534599304,
          -0.5693429112434387,
          0.7682613730430603,
          -0.5254930257797241,
          -0.2690045237541199,
          0.6943902373313904,
          -0.5149062871932983,
          -0.6541953682899475,
          0.9608445763587952,
          -0.5427530407905579,
          0.3844930827617645,
          1.4785164594650269,
          -0.674155056476593,
          0.31447547674179077,
          -0.7620498538017273,
          -0.39809975028038025,
          -0.6883445978164673,
          -1.30666983127594,
          0.546139121055603,
          1.001675009727478,
          -0.8357276916503906,
          0.4743915796279907,
          -0.24687273800373077,
          0.22230218350887299,
          0.015909837558865547,
          0.6384093761444092,
          -0.27500835061073303,
          0.5594431757926941,
          -0.05183342099189758,
          -0.06725799292325974,
          -1.172530174255371,
          0.8953142762184143,
          -0.37450680136680603,
          -0.6841015219688416,
          0.37116551399230957,
          0.09251651912927628,
          0.3255155086517334,
          0.450688898563385,
          0.18217380344867706,
          0.9599018096923828,
          0.2942866384983063,
          0.7583262920379639,
          -0.11566285043954849,
          1.0328410863876343,
          0.10002078860998154,
          1.0720738172531128,
          -0.4604390263557434,
          -0.6445893049240112,
          0.11246772110462189,
          0.6214112043380737,
          0.7990838885307312,
          1.3265678882598877,
          1.5496093034744263,
          -0.1014024168252945,
          -0.1510465443134308,
          -0.1796812117099762,
          0.6855466365814209,
          -0.9983881711959839,
          0.6735972166061401,
          1.166041374206543,
          -0.6688389778137207,
          -0.904410183429718,
          0.005906627979129553,
          0.12772813439369202,
          -0.21223001182079315,
          1.7268555164337158,
          0.6791301369667053,
          0.15471254289150238,
          0.8507324457168579,
          0.5071304440498352,
          0.5703779458999634,
          0.04284612089395523,
          0.04666358232498169,
          -0.21535199880599976,
          -0.5632692575454712,
          1.3116657733917236,
          1.293761134147644,
          0.420417845249176,
          0.13197878003120422,
          -0.26828423142433167,
          0.46334677934646606,
          0.1183636486530304,
          0.5374457240104675,
          0.05135553702712059,
          0.4709678292274475,
          0.6557090878486633,
          0.23844459652900696,
          -0.5227823853492737,
          0.5039339065551758,
          -0.5638348460197449,
          -0.34557655453681946,
          0.5464659929275513,
          0.8143923282623291,
          -0.4560515284538269,
          0.053686775267124176,
          -0.2840575873851776,
          -0.1319779008626938,
          -0.011171312071383,
          -0.8844424486160278,
          -0.2881365716457367,
          -0.1485251635313034,
          0.12337230145931244,
          0.15709108114242554,
          0.35491833090782166,
          0.2866596281528473,
          -0.08091143518686295,
          0.7475805282592773,
          -0.5147817134857178,
          -0.16954880952835083,
          1.148842453956604,
          -0.475503146648407,
          -0.6829485297203064,
          0.7161327004432678,
          -0.1823098063468933,
          0.1968294233083725,
          1.673593521118164,
          -1.5827220678329468,
          0.4388425350189209,
          -0.9794102907180786,
          -0.4361551105976105,
          -0.08884868025779724,
          -0.5399747490882874,
          -0.25266221165657043,
          -1.2474874258041382,
          -0.9559991955757141,
          0.11243325471878052,
          -0.2312804013490677,
          -1.6344618797302246,
          0.8459752798080444,
          0.5496159791946411,
          0.21135975420475006,
          0.7251240015029907,
          0.3076658248901367,
          -0.09449701756238937,
          1.18072509765625,
          1.6251155138015747,
          -0.8666320443153381,
          -1.132293462753296,
          -0.5775349140167236,
          -0.5661642551422119,
          -1.0264029502868652,
          0.06983326375484467,
          0.7730953097343445,
          -0.21160811185836792,
          -0.7932922840118408,
          -0.25912997126579285,
          -0.3114767372608185,
          -1.062455654144287,
          0.6129323244094849,
          -1.7926515340805054,
          -0.27024412155151367,
          0.7819119691848755,
          0.5117689371109009,
          -0.9863379001617432,
          -0.5227569341659546,
          -1.1889309883117676,
          -0.8059635758399963,
          1.0386441946029663,
          -1.1837141513824463,
          0.8628453612327576,
          -0.6691073179244995,
          -0.36236435174942017,
          0.7829403281211853,
          0.5382509231567383,
          -0.33078286051750183,
          0.7825027704238892,
          -0.10450362414121628,
          -0.42529791593551636,
          2.424227476119995,
          0.36898940801620483,
          0.1499745398759842,
          0.22741058468818665,
          0.2861664891242981,
          0.1210865005850792,
          0.5088885426521301,
          -0.7739070057868958,
          -0.4304800033569336,
          -0.5906465649604797,
          -0.1385771930217743,
          -0.6735619306564331,
          -0.8813508749008179,
          -0.7071936130523682,
          0.04665254056453705,
          -0.20301520824432373,
          -0.9798713326454163,
          0.6057555675506592,
          0.220337375998497,
          -2.155207872390747,
          0.6144593954086304,
          1.192224144935608,
          -0.10113900154829025,
          1.015023112297058,
          0.7745530009269714,
          -0.6354269981384277,
          -0.6730881333351135,
          0.6688637733459473,
          1.0050110816955566,
          0.5030499696731567,
          -0.3298420310020447,
          0.6931931972503662,
          -0.6403414607048035,
          1.4659656286239624,
          -0.9368281364440918,
          -0.7096540331840515,
          -0.10779950767755508,
          0.8027766942977905,
          0.6657562851905823,
          1.0317107439041138,
          0.9158334732055664,
          -0.6155409812927246,
          0.7377920746803284,
          -0.6474421620368958,
          0.1913152039051056,
          0.5116227865219116,
          -0.7898164391517639,
          -0.6291577219963074,
          0.2124241441488266,
          -0.7578359842300415,
          -0.046637918800115585,
          -0.4060737192630768,
          0.0529044009745121,
          0.5960374474525452,
          0.5218403339385986,
          -0.3336222767829895,
          1.3951196670532227,
          0.9321304559707642,
          0.6219770312309265,
          -0.4132744073867798,
          1.1110117435455322,
          -0.11989382654428482,
          -0.1888955682516098,
          1.5051504373550415,
          1.1130536794662476,
          0.27788880467414856,
          -0.194719135761261,
          -0.37441474199295044,
          0.20732297003269196,
          0.042618345469236374,
          0.9630492925643921,
          -0.5353173017501831,
          1.356126308441162,
          2.136692523956299,
          0.21742630004882812,
          -0.11371588706970215,
          0.31189826130867004,
          1.469364047050476,
          -0.936289370059967,
          0.0038114162161946297,
          -0.6453991532325745,
          0.7085952162742615,
          0.06644847244024277,
          -0.47559720277786255,
          0.29363805055618286,
          0.16252215206623077,
          -0.17431659996509552,
          0.3339674472808838,
          -0.8848991394042969,
          0.13665789365768433,
          1.4317235946655273,
          0.5933077335357666,
          0.42804402112960815,
          0.2206985354423523,
          0.19313320517539978,
          -0.4377714693546295,
          0.22526155412197113,
          0.692068874835968,
          -0.17823924124240875,
          -0.1283569186925888,
          0.09599123150110245,
          -0.2717815041542053,
          -1.2631940841674805,
          -0.6476035118103027,
          1.3202368021011353,
          0.2856152653694153,
          0.20092400908470154,
          -2.195819616317749,
          1.0573790073394775,
          -0.5879282355308533,
          0.5724572539329529,
          -1.4858812093734741,
          1.02784264087677,
          0.8456949591636658,
          0.8328384160995483,
          -1.22396981716156,
          -0.8734522461891174,
          -1.3245106935501099,
          -1.3718492984771729,
          -0.41171807050704956,
          -0.36280232667922974,
          1.455680012702942,
          -0.07994276285171509,
          -0.6220518946647644,
          2.3277928829193115,
          0.7991482019424438,
          -0.47575369477272034,
          1.6301774978637695,
          0.5373345613479614,
          -0.19295482337474823,
          -0.4642386734485626,
          0.9971423745155334,
          0.7848362922668457,
          0.6878817081451416,
          1.4320918321609497,
          1.2452335357666016,
          0.15969304740428925,
          0.7206128239631653,
          0.24983979761600494,
          -0.12076820433139801,
          -0.30698496103286743,
          0.6449416279792786,
          1.635935664176941,
          0.4189951717853546,
          0.9182093143463135,
          -1.6245344877243042,
          0.8004565834999084,
          -0.15394027531147003,
          2.0853607654571533,
          -0.1051141545176506,
          -0.15678514540195465,
          0.7160869240760803,
          -0.3284723162651062,
          -0.29515543580055237,
          -0.9724217057228088,
          0.1344022899866104,
          0.3797571659088135,
          0.3410002589225769,
          -0.22282321751117706,
          -0.677266001701355,
          -0.03166066110134125,
          -0.2780892252922058,
          1.5718640089035034,
          -0.3991585671901703,
          -0.3901977837085724,
          0.9205614328384399,
          1.0606509447097778,
          -0.3225996792316437,
          -0.3888941705226898,
          -0.20830434560775757,
          -0.8868072628974915,
          0.4492262601852417,
          -0.6587204337120056,
          0.8028991222381592,
          -0.01664183847606182,
          -0.10999836772680283,
          0.9799935817718506,
          0.5279686450958252,
          -0.6314607858657837,
          0.5909689664840698,
          -0.1225525513291359,
          0.18740737438201904,
          1.45773446559906,
          -0.9978883266448975,
          -0.6128777861595154,
          0.5436187386512756,
          0.9170708060264587,
          1.3972771167755127,
          -0.47862520813941956,
          -0.08787816017866135,
          0.6486331820487976,
          -0.3466969430446625,
          0.49670863151550293,
          0.05153568461537361,
          -0.016734186559915543,
          -1.041921854019165,
          -0.29015791416168213,
          -0.1270056664943695,
          -0.6866077184677124,
          0.07100970298051834,
          1.4424906969070435,
          -1.2455229759216309,
          0.14149220287799835,
          0.2977229058742523,
          -1.3301961421966553,
          1.494965672492981,
          0.11497779190540314,
          1.5159670114517212,
          -0.05170920863747597,
          -1.2627151012420654,
          -1.8823471069335938,
          -0.25812360644340515,
          -0.08060772716999054,
          0.21369217336177826,
          -0.24075822532176971,
          -0.06485190987586975,
          -0.7525909543037415,
          0.8925960659980774,
          0.3561995327472687,
          -1.0626691579818726,
          -0.1422661691904068,
          -0.34142935276031494,
          -0.5095773339271545,
          1.708992600440979,
          -0.8603239059448242,
          -0.06519091129302979,
          0.15905052423477173,
          0.4883609712123871,
          -0.4943030774593353,
          -0.4232909083366394,
          0.4805604815483093,
          0.3670046031475067,
          0.5550397634506226,
          -1.0485942363739014,
          0.09714950621128082,
          -1.0499606132507324,
          0.5892727375030518,
          -0.37217435240745544,
          -0.2707147002220154,
          0.13514597713947296,
          -0.8889011740684509,
          -0.6853547096252441,
          0.00857897661626339,
          -0.3296382427215576,
          0.670661985874176,
          0.1326751410961151,
          0.8579714894294739,
          -0.3489666283130646,
          -1.013352632522583,
          1.2365418672561646,
          -0.13532160222530365,
          -0.6159480214118958,
          -0.6594299077987671,
          0.7100284695625305,
          -0.716276228427887,
          -1.3765523433685303,
          1.1693174839019775,
          0.9803963303565979
        ]
      },
      "forgetHidden": {
        "rows": 20,
        "columns": 20,
        "weights": [
          0.4759763777256012,
          1.2836453914642334,
          -0.18135595321655273,
          -0.8301361799240112,
          0.31387850642204285,
          -0.10231607407331467,
          0.9494913816452026,
          0.7202985286712646,
          0.5032914280891418,
          0.03376094251871109,
          -0.3326047658920288,
          0.48448455333709717,
          -1.3418935537338257,
          -0.289357990026474,
          -0.6339305639266968,
          -0.18903876841068268,
          0.7282568216323853,
          -0.2500630021095276,
          0.12397580593824387,
          0.31882914900779724,
          -1.6855568885803223,
          -0.3675414025783539,
          0.3463652431964874,
          0.16511835157871246,
          -1.803006887435913,
          1.0046379566192627,
          -0.4213055968284607,
          -0.3298971951007843,
          0.9291164875030518,
          0.5981670618057251,
          1.5172719955444336,
          0.19000203907489777,
          -0.1639804244041443,
          0.32780036330223083,
          -0.993100643157959,
          -1.5222935676574707,
          -0.37002527713775635,
          -1.610884189605713,
          -0.850405216217041,
          -0.32497650384902954,
          -0.6102727651596069,
          0.3305579721927643,
          -0.13795511424541473,
          0.17594794929027557,
          1.5933411121368408,
          1.1323224306106567,
          0.05131584405899048,
          0.22630183398723602,
          0.1869141012430191,
          0.21084851026535034,
          0.41346612572669983,
          -0.0642743781208992,
          0.21560120582580566,
          -0.3487114906311035,
          0.4375979006290436,
          -0.5679398775100708,
          0.35002589225769043,
          -0.7858374118804932,
          0.13238470256328583,
          0.08164032548666,
          0.14875008165836334,
          0.2898412346839905,
          -0.03047555312514305,
          -0.06349297612905502,
          -0.29064711928367615,
          1.2484596967697144,
          -0.02826828323304653,
          0.23777088522911072,
          1.4349809885025024,
          0.2753845453262329,
          0.13799172639846802,
          0.325290709733963,
          -0.3714897930622101,
          0.42410188913345337,
          -0.8329959511756897,
          -0.46151983737945557,
          0.2087002694606781,
          -1.180582046508789,
          -0.620481014251709,
          0.17930923402309418,
          -2.1169536113739014,
          -2.3585963249206543,
          -0.3159772455692291,
          0.4208492040634155,
          -1.902195930480957,
          0.3519415855407715,
          0.7769370675086975,
          -0.8346299529075623,
          1.8550221920013428,
          0.7354024052619934,
          1.8250946998596191,
          0.0038342310581356287,
          0.4131959080696106,
          1.062566876411438,
          0.05318576470017433,
          -1.1464673280715942,
          -1.9591025114059448,
          0.14830297231674194,
          -1.45856773853302,
          -0.6642022132873535,
          0.9232479929924011,
          -0.693399965763092,
          -0.807383120059967,
          -0.19705632328987122,
          -2.55733585357666,
          1.0932552814483643,
          -0.029515916481614113,
          0.615368127822876,
          1.5740585327148438,
          0.31744661927223206,
          -0.4995627701282501,
          0.015876175835728645,
          -1.1023156642913818,
          0.10415616631507874,
          -0.20697914063930511,
          -0.6134188175201416,
          0.17881639301776886,
          1.0928099155426025,
          0.552518904209137,
          0.43356770277023315,
          0.9417334794998169,
          -0.17785397171974182,
          0.40265604853630066,
          1.65472412109375,
          -1.4332836866378784,
          -0.22667033970355988,
          -0.48649024963378906,
          -1.5968492031097412,
          1.137317419052124,
          -0.07421452552080154,
          -0.42150673270225525,
          -0.27139630913734436,
          -0.2847755551338196,
          2.2065043449401855,
          0.16936595737934113,
          -1.013305425643921,
          -1.430134654045105,
          0.3372011184692383,
          -1.538107991218567,
          -0.5859932899475098,
          -0.48668867349624634,
          0.06460375338792801,
          -1.2877018451690674,
          -0.2677842080593109,
          -0.9705823063850403,
          0.8017978072166443,
          -0.1298450231552124,
          0.5538533926010132,
          1.6782660484313965,
          1.07680082321167,
          2.011781930923462,
          0.6508076786994934,
          -0.3341400623321533,
          -1.6557230949401855,
          0.6046376824378967,
          -1.7541877031326294,
          0.5070038437843323,
          1.1808748245239258,
          1.434559941291809,
          0.06507842242717743,
          0.416858047246933,
          -0.1559796780347824,
          0.306157648563385,
          0.9327065348625183,
          0.5015496611595154,
          -0.5194849967956543,
          -0.13341261446475983,
          0.02847926691174507,
          0.5032972693443298,
          1.2120448350906372,
          -0.2546035647392273,
          0.047896355390548706,
          -0.5558282732963562,
          -0.8335302472114563,
          1.6806470155715942,
          -1.6054270267486572,
          -0.07620327174663544,
          0.672444760799408,
          -0.24621014297008514,
          -0.4057478904724121,
          0.5627296566963196,
          -0.18557164072990417,
          0.19329918920993805,
          0.14780539274215698,
          0.8106929063796997,
          0.16620546579360962,
          -0.380503386259079,
          -0.24366866052150726,
          -0.3363722264766693,
          -0.022100789472460747,
          -0.3338926136493683,
          -0.47114089131355286,
          0.4718364477157593,
          -0.31056642532348633,
          -0.08372478932142258,
          0.04832374304533005,
          -0.20306134223937988,
          -0.1120181456208229,
          1.1772629022598267,
          -0.5785014033317566,
          0.6477745771408081,
          0.48191356658935547,
          0.13224275410175323,
          -0.10354700684547424,
          -0.4542491137981415,
          -0.18904854357242584,
          -0.083824023604393,
          1.2512083053588867,
          0.238184854388237,
          -0.29518765211105347,
          -0.3711480498313904,
          1.332763671875,
          -1.0805741548538208,
          -0.2507364749908447,
          -0.6018844842910767,
          0.44463327527046204,
          1.366761326789856,
          -0.4381822347640991,
          0.7291100025177002,
          1.3831666707992554,
          -1.2726407051086426,
          -0.30671563744544983,
          0.12090222537517548,
          0.2510974109172821,
          -0.0409681499004364,
          1.124938726425171,
          0.013900939375162125,
          -0.18815509974956512,
          0.08759135752916336,
          0.3923296332359314,
          1.2843633890151978,
          -0.5053853392601013,
          0.031413331627845764,
          0.10550165176391602,
          -0.1668294072151184,
          -0.135997474193573,
          -0.15644916892051697,
          -0.3658849596977234,
          -0.2951335608959198,
          -0.04675045609474182,
          0.3098117411136627,
          -0.6424257159233093,
          -0.6493020057678223,
          -0.7933693528175354,
          -0.2538301944732666,
          -0.8104626536369324,
          1.2118480205535889,
          -0.34822511672973633,
          0.8240656852722168,
          -0.12326688319444656,
          0.4477440118789673,
          -1.456275224685669,
          0.2875439524650574,
          0.1528812199831009,
          -0.3206559121608734,
          0.4774678349494934,
          -0.4132029712200165,
          0.5974898934364319,
          0.5410704612731934,
          -0.4678788185119629,
          -1.0450916290283203,
          1.5032480955123901,
          -2.236581802368164,
          -1.1905821561813354,
          0.4359258711338043,
          1.2727456092834473,
          -0.5344727635383606,
          1.8212924003601074,
          1.3867332935333252,
          -2.3305654525756836,
          0.9690868258476257,
          -0.18347574770450592,
          -0.15081852674484253,
          -0.6349813342094421,
          -0.6089728474617004,
          -0.5684153437614441,
          1.2721428871154785,
          0.7686926126480103,
          1.3121737241744995,
          0.11152496188879013,
          -0.48470544815063477,
          -0.008608375675976276,
          0.787785530090332,
          0.5686032772064209,
          0.15710338950157166,
          0.08358520269393921,
          -0.3724287152290344,
          -0.6424450278282166,
          0.95965975522995,
          0.49255087971687317,
          0.29935234785079956,
          0.3635067939758301,
          0.272196888923645,
          0.5687495470046997,
          0.23511184751987457,
          0.21205183863639832,
          -0.7978720664978027,
          0.46700888872146606,
          -0.35393571853637695,
          -0.5880423188209534,
          -0.42146793007850647,
          -0.3288077414035797,
          -0.007786266040056944,
          0.4431350827217102,
          -0.19324785470962524,
          -0.22788576781749725,
          0.6110691428184509,
          -0.1360902488231659,
          0.2245333045721054,
          -0.6535706520080566,
          1.0498348474502563,
          -0.3019675612449646,
          0.4254830777645111,
          0.2911786735057831,
          -0.04253651946783066,
          0.2150687724351883,
          -0.18465490639209747,
          1.0893845558166504,
          -0.047017570585012436,
          -1.271366000175476,
          -0.06698895990848541,
          0.5534616708755493,
          -0.26545241475105286,
          -1.008678913116455,
          -0.9128800630569458,
          1.2814816236495972,
          -0.31990957260131836,
          0.46126821637153625,
          1.0630757808685303,
          0.09907020628452301,
          0.5589205622673035,
          0.5975909233093262,
          1.1468108892440796,
          0.8635451197624207,
          -1.5754612684249878,
          -0.8672569394111633,
          0.6121097207069397,
          0.9209712147712708,
          0.5080294609069824,
          1.0573033094406128,
          0.1600772589445114,
          0.45608991384506226,
          -0.6139516234397888,
          -1.0449963808059692,
          -0.09295091032981873,
          0.2588108479976654,
          -0.34505125880241394,
          0.7918370366096497,
          -0.9844213724136353,
          0.25788623094558716,
          -0.819208025932312,
          0.5976697206497192,
          -0.051934801042079926,
          0.12392586469650269,
          -0.6268101930618286,
          0.01837911829352379,
          1.2146748304367065,
          -0.361920028924942,
          0.8803467154502869,
          0.6739575862884521,
          0.4669855535030365,
          -0.1737772524356842,
          -1.4008748531341553,
          -1.0144234895706177,
          1.1445581912994385,
          -0.2419457584619522,
          0.7729575634002686,
          0.5845137238502502,
          0.5721381902694702,
          1.109074592590332,
          0.35830238461494446,
          -0.3619593679904938,
          0.4207817018032074,
          0.2447013407945633,
          -0.0041625117883086205,
          0.5508359670639038,
          0.4883999228477478,
          0.296630322933197,
          0.785162627696991,
          1.2137362957000732,
          -0.034597247838974,
          0.2627449929714203,
          -0.49256274104118347,
          -1.0404441356658936,
          -1.1578468084335327,
          0.4755821228027344,
          0.9330710172653198,
          0.5149208307266235,
          2.1081221103668213,
          0.7868189215660095,
          0.040903735905885696,
          0.9713699221611023,
          0.3954255282878876,
          1.5110077857971191,
          -0.9589795470237732,
          -1.4552862644195557,
          0.27963775396347046,
          0.933791995048523,
          0.22669348120689392,
          0.6758153438568115
        ]
      },
      "forgetBias": {
        "rows": 20,
        "columns": 1,
        "weights": [
          0,
          0,
          0,
          0,
          0,
          0,
          0,
          0,
          0,
          0,
          0,
          0,
          0,
          0,
          0,
          0,
          0,
          0,
          0,
          0
        ]
      },
      "outputMatrix": {
        "rows": 20,
        "columns": 26,
        "weights": [
          -0.9341378211975098,
          0.09440538287162781,
          1.075954556465149,
          -1.3323925733566284,
          -0.5050234794616699,
          -0.5567708611488342,
          0.5494273900985718,
          0.9564318656921387,
          0.2589905560016632,
          0.23427224159240723,
          0.8730846643447876,
          0.3146504759788513,
          0.22489364445209503,
          0.882043182849884,
          1.9369722604751587,
          -1.0813935995101929,
          -1.635272741317749,
          0.9185072779655457,
          -1.0809365510940552,
          0.654656708240509,
          0.3571465313434601,
          -0.5641193985939026,
          0.5494785904884338,
          0.08419966697692871,
          -0.017655154690146446,
          1.9543418884277344,
          0.12730976939201355,
          0.2771288752555847,
          -0.4892948269844055,
          -0.37333834171295166,
          -0.3242623209953308,
          -0.7288957238197327,
          0.46646425127983093,
          -0.41750094294548035,
          -0.11579371988773346,
          0.12609945237636566,
          0.19248518347740173,
          0.09954892843961716,
          -0.40414395928382874,
          0.42330193519592285,
          1.0641435384750366,
          0.20484130084514618,
          -0.7885614037513733,
          1.403961181640625,
          0.0593976192176342,
          -0.11146319657564163,
          -0.9564041495323181,
          1.002076506614685,
          -0.5672104954719543,
          -1.335050106048584,
          0.39839106798171997,
          0.1269351840019226,
          0.6430521607398987,
          -0.12167703360319138,
          -0.5477878451347351,
          0.4809345006942749,
          0.25255706906318665,
          0.7562248706817627,
          -0.26953601837158203,
          0.4453979432582855,
          -0.4027166962623596,
          1.2351678609848022,
          -0.6597912907600403,
          -0.8896610140800476,
          -1.0375274419784546,
          0.49838778376579285,
          0.49935397505760193,
          0.34187638759613037,
          0.5760353207588196,
          -0.8834934830665588,
          0.6487804055213928,
          -0.5997495651245117,
          0.6795441508293152,
          0.4827306270599365,
          -0.8813580870628357,
          -0.40134620666503906,
          0.16954845190048218,
          -0.9961864948272705,
          0.5547999143600464,
          -1.49020516872406,
          -0.15313902497291565,
          0.7070680856704712,
          1.766963243484497,
          0.161924809217453,
          0.17969757318496704,
          -0.038784656673669815,
          -0.6098338961601257,
          0.08159050345420837,
          0.3547743260860443,
          -1.378641128540039,
          -0.49620333313941956,
          0.33252832293510437,
          -0.2775111794471741,
          0.47178539633750916,
          0.8980962038040161,
          -1.6867741346359253,
          1.19903564453125,
          -0.4800751507282257,
          -0.4991820156574249,
          0.344647616147995,
          -0.2747345566749573,
          -0.8275223970413208,
          0.46576109528541565,
          -0.06358347088098526,
          0.45382988452911377,
          -1.3247789144515991,
          -0.07840796560049057,
          1.1171269416809082,
          0.8067605495452881,
          0.7867782115936279,
          -1.2975910902023315,
          -1.1457958221435547,
          -1.3955087661743164,
          0.20844198763370514,
          -1.2700031995773315,
          -0.5661616921424866,
          -0.005468950141221285,
          -1.5391346216201782,
          -1.7188732624053955,
          -0.17436428368091583,
          0.9304862022399902,
          -0.4862883985042572,
          -0.006784030236303806,
          -0.09476172178983688,
          -0.7499850988388062,
          0.6015731692314148,
          -1.0182398557662964,
          -1.1032073497772217,
          0.5300796031951904,
          -0.4723847806453705,
          0.5071024298667908,
          0.7474632263183594,
          -0.7647990584373474,
          -0.5193220376968384,
          -0.7666128873825073,
          0.07904654741287231,
          -0.8999158143997192,
          0.03164887800812721,
          -0.4797458350658417,
          1.2979402542114258,
          -0.8160980939865112,
          0.3229879140853882,
          0.29416030645370483,
          -0.4032922685146332,
          0.3585689961910248,
          0.7499729990959167,
          0.5881484746932983,
          0.34812039136886597,
          -0.21338991820812225,
          -0.30172300338745117,
          -0.052715856581926346,
          1.0608223676681519,
          -1.1119023561477661,
          -0.9351896643638611,
          -0.3294321298599243,
          -0.5192440152168274,
          -0.8040347695350647,
          0.04495980963110924,
          0.05467581748962402,
          -0.6898893117904663,
          -1.0984135866165161,
          -0.4958227276802063,
          -0.22036634385585785,
          -0.5883253812789917,
          0.365632563829422,
          -1.5323201417922974,
          0.12609659135341644,
          1.080337643623352,
          0.18809977173805237,
          -1.4623851776123047,
          -1.0564537048339844,
          -0.8993826508522034,
          -0.9518175721168518,
          1.486924409866333,
          -0.7973113656044006,
          0.9042988419532776,
          -0.7550253868103027,
          0.04201357066631317,
          0.3776227831840515,
          0.14615435898303986,
          0.004732518456876278,
          0.43131023645401,
          0.6765929460525513,
          -0.6110658645629883,
          -0.3214435279369354,
          -0.513087272644043,
          0.6343256831169128,
          -0.8081294894218445,
          -0.7462251782417297,
          -1.3986903429031372,
          -0.4761885702610016,
          0.9768604636192322,
          -0.048145592212677,
          -0.7011666297912598,
          0.9209340810775757,
          -0.06056687608361244,
          -0.2757014334201813,
          0.2774800956249237,
          0.44606438279151917,
          -0.4522610306739807,
          1.1355080604553223,
          -0.9380183815956116,
          -1.5116087198257446,
          0.9526095390319824,
          -0.4757431745529175,
          -1.1156694889068604,
          -0.15260346233844757,
          -0.3436519205570221,
          0.18693459033966064,
          -0.006486213766038418,
          0.21110093593597412,
          0.9180912375450134,
          -0.16684643924236298,
          -0.5008265376091003,
          -0.02197975479066372,
          -0.9296290874481201,
          0.278663694858551,
          -0.999232292175293,
          -0.10701821744441986,
          0.1926610916852951,
          0.9393089413642883,
          -0.7650696635246277,
          0.37470734119415283,
          0.1870506852865219,
          0.27142107486724854,
          0.45772355794906616,
          0.366301029920578,
          -0.16105276346206665,
          0.1116209626197815,
          -0.06973078846931458,
          0.10817135870456696,
          0.1144334003329277,
          -0.5148887038230896,
          0.8331807255744934,
          -0.683601438999176,
          -0.6316574811935425,
          -0.255073606967926,
          -0.8204663991928101,
          -0.3968545198440552,
          0.3419262170791626,
          0.031191164627671242,
          0.29790499806404114,
          0.011993649415671825,
          -1.6137948036193848,
          0.22648783028125763,
          0.7348962426185608,
          -0.2210000455379486,
          -0.9651814103126526,
          1.1883281469345093,
          -1.4377257823944092,
          -0.7479175329208374,
          1.0786957740783691,
          -0.9833816289901733,
          0.8567793369293213,
          0.37697166204452515,
          0.07077398896217346,
          -0.20504780113697052,
          -0.05464224889874458,
          -0.059598665684461594,
          -0.10273139923810959,
          -0.579742968082428,
          -1.026286005973816,
          1.1092559099197388,
          0.6179781556129456,
          0.8693940043449402,
          -0.5039685368537903,
          0.9094089865684509,
          1.057165503501892,
          0.43145641684532166,
          1.7377923727035522,
          1.516781210899353,
          -0.5180020332336426,
          0.025948887690901756,
          1.2890688180923462,
          1.639859676361084,
          0.0017465791897848248,
          0.36485278606414795,
          -0.15785859525203705,
          -0.11062800884246826,
          0.3697047829627991,
          0.4348219633102417,
          -1.0610313415527344,
          0.2748943567276001,
          0.3971550762653351,
          -1.179943323135376,
          1.1129618883132935,
          0.6103724837303162,
          -1.2795984745025635,
          0.4016566872596741,
          1.1938523054122925,
          1.698441743850708,
          0.4136520326137543,
          0.18850092589855194,
          0.3625032305717468,
          0.1014908105134964,
          0.6711578369140625,
          0.23717133700847626,
          -1.206263542175293,
          0.5487874746322632,
          -0.21075451374053955,
          0.5373994708061218,
          1.2154217958450317,
          1.0486187934875488,
          -0.21102318167686462,
          0.4340267479419708,
          -0.38231515884399414,
          0.6643906235694885,
          -0.7529566884040833,
          -0.04135045409202576,
          0.21061767637729645,
          -0.09844637662172318,
          -0.2847200632095337,
          -0.2969712018966675,
          -0.13582968711853027,
          -0.04300941899418831,
          0.8432081341743469,
          0.2889762818813324,
          -0.7152637243270874,
          0.32535067200660706,
          -1.1944191455841064,
          0.8502346277236938,
          -1.350400447845459,
          0.3202616274356842,
          0.33559638261795044,
          0.354099303483963,
          -1.6639443635940552,
          -1.1578947305679321,
          0.10182543098926544,
          -0.515270471572876,
          0.16015949845314026,
          -0.4930326044559479,
          0.5828544497489929,
          -0.6547229886054993,
          0.09443680942058563,
          0.7171283960342407,
          0.516959011554718,
          -0.02114533819258213,
          -0.21373209357261658,
          -0.41837450861930847,
          1.51229727268219,
          -0.296169638633728,
          -0.5979655385017395,
          -1.927004337310791,
          -0.646128237247467,
          -0.19451463222503662,
          -0.20549233257770538,
          -0.07985911518335342,
          -1.1165388822555542,
          0.15599298477172852,
          1.2253077030181885,
          -0.6549737453460693,
          -0.9926721453666687,
          0.4746246933937073,
          -0.24393801391124725,
          -0.23548263311386108,
          1.5745474100112915,
          -1.0706982612609863,
          0.5203126668930054,
          -0.09965108335018158,
          0.6033003330230713,
          -0.17898644506931305,
          -0.17094069719314575,
          -0.49300968647003174,
          0.28803592920303345,
          0.7276163697242737,
          0.8005709052085876,
          -0.7508488297462463,
          0.8289098143577576,
          -0.8615992069244385,
          0.5119762420654297,
          -0.9291656613349915,
          -0.5352436900138855,
          -0.7115598917007446,
          0.6608676314353943,
          -1.0246559381484985,
          -0.05972490832209587,
          -0.3900988698005676,
          -0.9734081029891968,
          -0.17817460000514984,
          0.6925047039985657,
          0.94102543592453,
          -0.198057159781456,
          0.26507723331451416,
          -0.5565571188926697,
          0.2517227828502655,
          0.7796767950057983,
          -0.759021520614624,
          -0.16450989246368408,
          -0.43239668011665344,
          -0.419008731842041,
          -0.357418030500412,
          0.87944096326828,
          -0.6759811639785767,
          0.3051782250404358,
          -1.3693026304244995,
          -0.7084553241729736,
          -0.3898400366306305,
          -0.9380506277084351,
          0.9149066209793091,
          1.1244457960128784,
          -0.06425134837627411,
          1.0469883680343628,
          0.2321847379207611,
          -0.3799303472042084,
          1.1560003757476807,
          -0.22801479697227478,
          -0.31576260924339294,
          0.661484956741333,
          0.1405155509710312,
          0.6158233284950256,
          -0.47907817363739014,
          0.6628530621528625,
          0.07157693058252335,
          -0.3964992165565491,
          -0.06462166458368301,
          -0.4713571071624756,
          0.681675136089325,
          -1.3378187417984009,
          -0.15342044830322266,
          0.26690492033958435,
          1.1597318649291992,
          0.41659680008888245,
          -0.5436637997627258,
          -0.7990462779998779,
          -1.2234199047088623,
          0.229008749127388,
          -0.29723089933395386,
          -1.0690537691116333,
          -0.04697372019290924,
          -0.9263758659362793,
          -1.5563234090805054,
          0.22042831778526306,
          0.4188125431537628,
          -1.0010453462600708,
          0.9655216932296753,
          -0.9650912284851074,
          -1.1464464664459229,
          0.47985997796058655,
          -0.9550237655639648,
          -1.5531858205795288,
          0.9032138586044312,
          0.16295461356639862,
          -0.2262951284646988,
          -0.031450748443603516,
          0.8317955136299133,
          0.2787698209285736,
          0.052005186676979065,
          -0.965208888053894,
          0.9760885238647461,
          0.43161505460739136,
          0.4427439570426941,
          0.9553881883621216,
          1.1866035461425781,
          -0.0504867322742939,
          -0.15813671052455902,
          0.6656936407089233,
          1.5941667556762695,
          -0.12696953117847443,
          0.7100450992584229,
          0.4763110876083374,
          0.14235785603523254,
          0.426496684551239,
          0.6361916661262512,
          -0.7132962346076965,
          0.16888758540153503,
          0.030235113576054573,
          -0.8434867858886719,
          -0.14522027969360352,
          0.004090076312422752,
          0.6311018466949463,
          -0.9647496938705444,
          0.1802530437707901,
          -0.49025723338127136,
          0.13973282277584076,
          -0.3863472640514374,
          -0.7218201756477356,
          0.0731792226433754,
          0.8734176754951477,
          -0.031551145017147064,
          0.2747102379798889,
          -1.2721723318099976,
          -0.02625773474574089,
          0.7786607146263123,
          0.06707954406738281,
          -0.23429349064826965,
          0.6631859540939331,
          -0.0952962264418602,
          0.3477165997028351,
          -0.644666314125061,
          1.037462592124939,
          -0.6712657809257507,
          -0.8974145650863647,
          0.6378635764122009,
          -0.7368714213371277,
          0.7958344221115112,
          -0.47876662015914917,
          -0.7594739198684692,
          -0.1497461199760437,
          -0.4781441390514374,
          0.6035336256027222,
          -1.3315857648849487,
          -1.0720635652542114,
          -1.611058235168457,
          0.5479092597961426,
          -0.6082519888877869,
          -0.44925156235694885,
          -0.5177983045578003,
          -0.5854809284210205,
          -0.5561409592628479,
          0.1632089912891388,
          0.3039849102497101,
          -0.454242080450058,
          0.8014388680458069,
          -0.9787037968635559,
          -0.8142353892326355,
          1.5220588445663452,
          -1.4587318897247314,
          -1.7492516040802002,
          0.5482367277145386,
          -0.10903676599264145
        ]
      },
      "outputHidden": {
        "rows": 20,
        "columns": 20,
        "weights": [
          0.9217776656150818,
          0.26054078340530396,
          -0.47976428270339966,
          -0.8573824763298035,
          -0.900158703327179,
          0.6178470849990845,
          0.4457003176212311,
          0.6828675270080566,
          1.6239625215530396,
          -0.9398300647735596,
          -0.7663917541503906,
          0.6146613955497742,
          -0.843903660774231,
          -0.04636339843273163,
          -1.5856109857559204,
          -0.6511706709861755,
          0.804562509059906,
          -0.8605284094810486,
          0.06642738729715347,
          0.5735173225402832,
          -0.34715569019317627,
          -1.224219560623169,
          1.048490047454834,
          0.8312368392944336,
          -2.1119465827941895,
          1.3906198740005493,
          -0.7088415622711182,
          -0.6820602416992188,
          2.32749605178833,
          0.1686481386423111,
          0.8854959607124329,
          0.7146856188774109,
          0.7428262233734131,
          0.3737347722053528,
          -1.4565017223358154,
          -1.0541622638702393,
          -0.49033427238464355,
          1.0930771827697754,
          -0.9687505960464478,
          -0.5627413392066956,
          0.9951260089874268,
          0.642722487449646,
          -1.0869529247283936,
          -0.23367834091186523,
          0.3830631971359253,
          1.182047724723816,
          -0.9276446104049683,
          1.0121240615844727,
          1.2129908800125122,
          0.5887752175331116,
          -1.328780174255371,
          1.0580477714538574,
          -0.8164860606193542,
          -0.736197292804718,
          1.9905550479888916,
          -1.1430610418319702,
          1.1918729543685913,
          -0.9243332743644714,
          0.22941285371780396,
          0.6372377872467041,
          -0.7304009199142456,
          -1.7935247421264648,
          0.7544196248054504,
          0.9566061496734619,
          0.3050069808959961,
          0.41349348425865173,
          -0.30437105894088745,
          -0.932235062122345,
          0.4961172342300415,
          1.531165361404419,
          0.2676021456718445,
          -0.683750569820404,
          0.030018340796232224,
          0.7517074942588806,
          0.7615082263946533,
          -0.06154049187898636,
          -1.2321645021438599,
          -0.4262148141860962,
          -0.8081045150756836,
          -0.998110830783844,
          -0.34428468346595764,
          0.6460248231887817,
          -0.5884643197059631,
          -0.8350054025650024,
          -0.7687463164329529,
          0.9370340704917908,
          -2.3130757808685303,
          0.81507408618927,
          0.48227769136428833,
          0.19582705199718475,
          0.8652184009552002,
          1.026497721672058,
          -1.68893563747406,
          -1.5246233940124512,
          -0.9638091921806335,
          -0.0016558042261749506,
          0.5435759425163269,
          -0.7690678834915161,
          1.2084715366363525,
          0.5606415867805481,
          -0.22453947365283966,
          -0.7633503079414368,
          -0.7942168116569519,
          -0.36375516653060913,
          -0.7502745985984802,
          0.8816857933998108,
          -0.27675238251686096,
          0.4223739504814148,
          2.447554111480713,
          0.9299579858779907,
          0.8266181349754333,
          0.846835732460022,
          0.36066290736198425,
          0.12251649051904678,
          0.9506399631500244,
          -1.0001243352890015,
          0.271334707736969,
          0.8569893836975098,
          -1.0674654245376587,
          0.7206360101699829,
          -0.40821948647499084,
          -0.5460407733917236,
          1.0777302980422974,
          0.5550141930580139,
          -0.3087864816188812,
          0.512050986289978,
          -1.0404828786849976,
          -0.6794438362121582,
          0.050793472677469254,
          0.13593968749046326,
          0.9585098028182983,
          -0.8334852457046509,
          0.2616986036300659,
